<?xml version="1.0"?>
<opencv_storage>
<cascade>
  <stageType>BOOST</stageType>
  <featureType>LBP</featureType>
  <height>45</height>
  <width>45</width>
  <stageParams>
    <boostType>GAB</boostType>
    <minHitRate>9.9500000476837158e-01</minHitRate>
    <maxFalseAlarm>5.0000000000000000e-01</maxFalseAlarm>
    <weightTrimRate>9.4999999999999996e-01</weightTrimRate>
    <maxDepth>1</maxDepth>
    <maxWeakCount>100</maxWeakCount></stageParams>
  <featureParams>
    <maxCatCount>256</maxCatCount>
    <featSize>1</featSize></featureParams>
  <stageNum>9</stageNum>
  <stages>
    <!-- stage 0 -->
    <_>
      <maxWeakCount>1</maxWeakCount>
      <stageThreshold>9.1521197557449341e-01</stageThreshold>
      <weakClassifiers>
        <_>
          <internalNodes>
            0 -1 2 -11012098 -716488297 -721336865 2141010699
            -1462780673 -1417576437 -18617409 -7607873</internalNodes>
          <leafValues>
            -1. 9.1521197557449341e-01</leafValues></_></weakClassifiers></_>
    <!-- stage 1 -->
    <_>
      <maxWeakCount>2</maxWeakCount>
      <stageThreshold>-7.0549204945564270e-02</stageThreshold>
      <weakClassifiers>
        <_>
          <internalNodes>
            0 -1 13 -35913761 -1852205574 -586951313 -845485 -763115537
            -1147473736 -139732737 -1077937409</internalNodes>
          <leafValues>
            -9.7736626863479614e-01 9.0201002359390259e-01</leafValues></_>
        <_>
          <internalNodes>
            0 -1 9 -705569793 -1684831845 118575071 -6433509 -914097153
            1066634479 -79038209 -67118597</internalNodes>
          <leafValues>
            -9.6117991209030151e-01 9.0681701898574829e-01</leafValues></_></weakClassifiers></_>
    <!-- stage 2 -->
    <_>
      <maxWeakCount>2</maxWeakCount>
      <stageThreshold>-3.5329282283782959e-02</stageThreshold>
      <weakClassifiers>
        <_>
          <internalNodes>
            0 -1 7 -580911105 2136855999 -771624545 2013122895 -97910085
            968825499 -381555717 -2098261</internalNodes>
          <leafValues>
            -9.6315252780914307e-01 8.9527457952499390e-01</leafValues></_>
        <_>
          <internalNodes>
            0 -1 16 -169869313 -775363940 34652553 -715788203
            -1044123441 -1299775485 -368053811 -34604385</internalNodes>
          <leafValues>
            -9.3060386180877686e-01 9.3155664205551147e-01</leafValues></_></weakClassifiers></_>
    <!-- stage 3 -->
    <_>
      <maxWeakCount>2</maxWeakCount>
      <stageThreshold>-1.2433544546365738e-01</stageThreshold>
      <weakClassifiers>
        <_>
          <internalNodes>
            0 -1 1 -212870145 -145903486 -753694765 -158030 -16148481
            -12090645 -1857626113 -2099225</internalNodes>
          <leafValues>
            -9.6066254377365112e-01 8.6649876832962036e-01</leafValues></_>
        <_>
          <internalNodes>
            0 -1 6 -586162177 -48393777 427685807 -8394340 -667747841
            -69232451 -1106642177 -196676</internalNodes>
          <leafValues>
            -9.9083417654037476e-01 8.3709585666656494e-01</leafValues></_></weakClassifiers></_>
    <!-- stage 4 -->
    <_>
      <maxWeakCount>2</maxWeakCount>
      <stageThreshold>-8.8596992194652557e-02</stageThreshold>
      <weakClassifiers>
        <_>
          <internalNodes>
            0 -1 3 -2098433 -541916429 -1876864589 -615023785 -259269397
            -667819701 -281615381 -34873</internalNodes>
          <leafValues>
            -9.4628101587295532e-01 8.5353535413742065e-01</leafValues></_>
        <_>
          <internalNodes>
            0 -1 10 -80478883 496210269 1259560351 -6433833 -1180980596
            -541415267 -1140081942 -24128833</internalNodes>
          <leafValues>
            -9.4053190946578979e-01 8.5768401622772217e-01</leafValues></_></weakClassifiers></_>
    <!-- stage 5 -->
    <_>
      <maxWeakCount>2</maxWeakCount>
      <stageThreshold>-1.6181135177612305e-01</stageThreshold>
      <weakClassifiers>
        <_>
          <internalNodes>
            0 -1 15 -136316165 -570961141 -796670861 -177217109
            -1836602721 -1299513053 -1427637985 -1159725361</internalNodes>
          <leafValues>
            -9.5807129144668579e-01 8.3622831106185913e-01</leafValues></_>
        <_>
          <internalNodes>
            0 -1 4 -740296710 -616041490 1700240339 -548417313
            -1142955009 -1148480801 -670057993 -1048833</internalNodes>
          <leafValues>
            -9.6908169984817505e-01 7.9625993967056274e-01</leafValues></_></weakClassifiers></_>
    <!-- stage 6 -->
    <_>
      <maxWeakCount>2</maxWeakCount>
      <stageThreshold>-7.8159630298614502e-02</stageThreshold>
      <weakClassifiers>
        <_>
          <internalNodes>
            0 -1 14 -167772161 -1685327022 -913126433 -538975745
            -650395905 -1247696281 -213259361 -2097201</internalNodes>
          <leafValues>
            -9.2893403768539429e-01 8.7096774578094482e-01</leafValues></_>
        <_>
          <internalNodes>
            0 -1 12 -144703489 2111281119 -1696657793 283115005
            -640966658 -704996214 -18087937 -102760481</internalNodes>
          <leafValues>
            -9.4912737607955933e-01 8.5882681608200073e-01</leafValues></_></weakClassifiers></_>
    <!-- stage 7 -->
    <_>
      <maxWeakCount>2</maxWeakCount>
      <stageThreshold>-1.1864151060581207e-01</stageThreshold>
      <weakClassifiers>
        <_>
          <internalNodes>
            0 -1 8 -673186849 -2754369 -763635882 -270043697 -1291854401
            -268975715 -3170306 -459777</internalNodes>
          <leafValues>
            -9.6728461980819702e-01 7.6749706268310547e-01</leafValues></_>
        <_>
          <internalNodes>
            0 -1 0 -552863745 -177351734 -1816330753 -2647845 2047859647
            -1391558466 2068376063 -1541</internalNodes>
          <leafValues>
            -8.8613855838775635e-01 8.7554156780242920e-01</leafValues></_></weakClassifiers></_>
    <!-- stage 8 -->
    <_>
      <maxWeakCount>2</maxWeakCount>
      <stageThreshold>-1.7798924446105957e-01</stageThreshold>
      <weakClassifiers>
        <_>
          <internalNodes>
            0 -1 5 -541067265 -232308057 -1877831426 300053375
            -745123840 -284339904 -943526978 -2049</internalNodes>
          <leafValues>
            -9.3710690736770630e-01 8.1141442060470581e-01</leafValues></_>
        <_>
          <internalNodes>
            0 -1 11 -513 1035199163 -103427649 -3146777 -23131409
            1006631325 -72372817 -71575349</internalNodes>
          <leafValues>
            -9.6897095441818237e-01 7.5911766290664673e-01</leafValues></_></weakClassifiers></_></stages>
  <features>
    <_>
      <rect>
        0 1 5 3</rect></_>
    <_>
      <rect>
        0 1 7 3</rect></_>
    <_>
      <rect>
        0 6 15 12</rect></_>
    <_>
      <rect>
        1 3 4 7</rect></_>
    <_>
      <rect>
        1 6 4 3</rect></_>
    <_>
      <rect>
        1 22 2 7</rect></_>
    <_>
      <rect>
        3 23 12 4</rect></_>
    <_>
      <rect>
        3 32 7 4</rect></_>
    <_>
      <rect>
        5 18 9 7</rect></_>
    <_>
      <rect>
        19 33 8 4</rect></_>
    <_>
      <rect>
        21 0 8 2</rect></_>
    <_>
      <rect>
        24 32 6 4</rect></_>
    <_>
      <rect>
        30 8 5 4</rect></_>
    <_>
      <rect>
        30 25 5 6</rect></_>
    <_>
      <rect>
        31 30 4 4</rect></_>
    <_>
      <rect>
        33 1 4 8</rect></_>
    <_>
      <rect>
        38 27 2 6</rect></_></features></cascade>
</opencv_storage>
